svm_type epsilon_svr
kernel_type rbf
gamma 0.0714286
nr_class 2
total_sv 61
rho -1.06208
probA 0.000826978
SV
-0.2475160352467264 1:-0.12 2:-0.932203 3:-0.249949 4:0.875648 5:-0.21393 6:-0.114236 7:-0.364676 8:-0.272727 9:-0.0623441 10:0.118012 11:-0.121622 12:0.0792079 13:0.381295 14:0.0714286 
0.2436601071325982 1:-0.827368 2:-0.898305 3:-0.407317 4:0.84456 5:-0.303483 6:-0.240773 7:-0.66709 8:-0.524721 9:-0.216958 10:-0.341615 11:-0.364865 12:0.0990099 13:0.453237 14:-0.142857 
0.1070644998543437 1:-0.12 2:-0.559322 3:-0.638259 4:0.512953 5:-0.472637 6:-0.304042 7:-0.405337 8:-0.547049 9:-0.206983 10:-0.291925 11:-0.648649 12:-0.376238 13:-0.223022 14:-0.607143 
-0.1695456003594511 1:-0.343158 2:-0.694915 3:-0.822195 4:0.606218 5:-0.721393 6:-0.764499 7:-0.822109 8:-0.69378 9:-0.491272 10:-0.714286 11:-0.581081 12:-0.693069 13:-0.294964 14:-0.678571 
-0.1150440106729345 1:-0.667368 2:-0.59322 3:-0.893726 4:0.57513 5:-0.492537 6:-0.673111 7:-0.867853 8:-0.990431 9:-0.775561 10:-0.78882 11:-0.689189 12:-0.613861 13:-0.136691 14:-0.75 
0.1115170316541957 1:-0.498947 2:-0.661017 3:-0.480891 4:0.834197 5:-0.243781 6:-0.254833 7:-0.50953 8:-0.527911 9:-0.486284 10:-0.291925 11:1 12:-0.237624 13:-0.0359712 14:-0.0714286 
0.1561923283055104 1:-0.76 2:-0.762712 3:-0.658696 4:0.73057 5:-0.383085 6:-0.500879 7:-0.616264 8:-0.502392 9:-0.436409 10:-0.279503 11:-0.675676 12:-0.475248 13:-0.223022 14:-0.25 
0.1849299573384159 1:0.36 2:-0.355932 3:0.052524 4:0.823834 5:0.0945274 6:0.325132 7:0.174079 8:-0.00797448 9:0.197007 10:0.279503 11:-0.027027 12:0.237624 13:0.539568 14:0.392857 
-0.01700637414208926 1:0.688421 2:-0.0847458 3:-0.401185 4:0.471503 5:-0.273632 6:0.377856 7:0.110546 8:-0.0813397 9:-0.266833 10:-0.341615 11:-0.621622 12:-0.287129 13:0.266187 14:-0.571429 
-0.02193683342272356 1:0.482105 2:-0.186441 3:1 4:0.772021 5:1 6:1 7:1 8:1 9:1 10:1 11:0.418919 12:1 13:0.151079 14:1 
0.1103370476608619 1:0.372632 2:-0.0508475 3:-0.309217 4:0.554404 5:-0.0945274 6:0.247803 7:-0.0165184 8:-0.441786 9:-0.296758 10:0.00621118 11:-0.243243 12:-0.0792079 13:0.438849 14:-0.107143 
0.02887460915426657 1:0.452632 2:-0.220339 3:0.179236 4:0.626943 5:0.20398 6:0.72232 7:0.443456 8:0.295056 9:0.261845 10:-0.180124 11:0.0135135 12:0.148515 13:0.683453 14:1 
-0.04677554626105027 1:0.385263 2:-0.254237 3:-0.292867 4:-1 5:-0.452736 6:-0.0615114 7:-0.113088 8:-0.0271132 9:0.167082 10:0.180124 11:-0.378378 12:-0.128713 13:0.107914 14:-0.428571 
0.03305907507864672 1:0.347368 2:-0.355932 3:-0.235643 4:0.740933 5:0.0348259 6:-0.0404218 7:-0.113088 8:-0.330144 9:-0.112219 10:-0.10559 11:-0.472973 12:0.0891089 13:0.510791 14:0.0714286 
-0.080849831647359 1:-0.675789 2:-0.423729 3:-0.944819 4:0.595855 5:-0.960199 6:-0.796134 7:-0.832274 8:-0.897927 9:-0.860349 10:-0.78882 11:-0.743243 12:-0.871287 13:-0.697842 14:-0.892857 
-0.2275582420471193 1:-0.545263 2:-0.389831 3:-0.877376 4:0.57513 5:-0.751244 6:-0.68717 7:-0.890724 8:-0.888357 9:-0.695761 10:-0.813665 11:-0.540541 12:-0.693069 13:-0.251799 14:-0.464286 
-1 1:-0.764211 2:-0.423729 3:-0.754752 4:0.73057 5:-0.651741 6:-0.630931 7:-0.743329 8:-0.754386 9:-0.725686 10:-0.440994 11:-0.621622 12:-0.60396 13:-0.165468 14:-0.25 
-0.2622638798792424 1:-0.831579 2:-0.152542 3:-0.926426 4:0.544041 5:-0.711443 6:-0.855888 7:-0.974587 8:-0.929825 9:-0.830424 10:-0.826087 11:-0.621622 12:-0.80198 13:-0.309353 14:-0.642857 
-0.1374631161937835 1:-0.663158 2:-0.0169492 3:-0.84672 4:0.585492 5:-0.462687 6:-0.634446 7:-0.679797 8:-0.869219 9:-0.895262 10:-0.913043 11:-0.689189 12:-0.524752 13:-0.280576 14:-0.607143 
0.07315542248533609 1:-0.734737 2:-0.0847458 3:-0.720008 4:0.823834 5:-0.60199 6:-0.507909 7:-0.740788 8:-0.789474 9:-0.730673 10:-0.428571 11:-0.527027 12:0.356436 13:-0.0791367 14:-0.0357143 
-0.4925636114688241 1:0.0989474 2:0.355932 3:-0.202943 4:0.813472 5:0.0248756 6:0.15993 7:-0.100381 8:-0.422648 9:-0.281796 10:-0.0186335 11:-0.459459 12:0.128713 13:0.553957 14:0.571429 
0.01809304132200357 1:0.36 2:0.186441 3:-0.28878 4:0.678756 5:-0.104478 6:-0.086116 7:-0.0825921 8:-0.256778 9:-0.112219 10:0.0186335 11:-0.243243 12:0.039604 13:0.453237 14:-0.0714286 
-0.04022851594004363 1:-0.0947368 2:0.0847458 3:-0.730227 4:0.709845 5:-0.552239 6:-0.623902 7:-0.631512 8:-0.716108 9:-0.610973 10:-0.614907 11:-0.648649 12:-0.524752 13:-0.0791367 14:-0.428571 
-0.1131954689146308 1:-0.629474 2:0.118644 3:-0.769058 4:0.626943 5:-0.243781 6:-0.676626 7:-0.659466 8:-0.665072 9:-0.416459 10:-0.428571 11:-0.662162 12:-0.455446 13:-0.0935252 14:-0.107143 
-0.3788979761785166 1:-0.431579 2:0.118644 3:-0.946863 4:0.430052 5:-0.791045 6:-0.704745 7:-0.832274 8:-0.885167 9:-0.815461 10:-0.701863 11:-1 12:-0.554455 13:-0.323741 14:-0.607143 
1 1:-0.221053 2:0.322034 3:-0.756795 4:0.57513 5:-0.512438 6:-0.567663 7:-0.684879 8:-0.6874 9:-0.63591 10:-0.503106 11:-0.689189 12:-0.554455 13:-0.136691 14:-0.107143 
-0.008985598024059353 1:-0.0652632 2:0.59322 3:-0.515635 4:0.61658 5:-0.243781 6:-0.202109 7:-0.349428 8:-0.575758 9:-0.610973 10:-0.341615 11:-0.635135 12:-0.405941 13:-0.323741 14:0.0714286 
-0.1258867230546505 1:0.128421 2:0.423729 3:-0.740446 4:0.564767 5:-0.303483 6:-0.374341 7:-0.501906 8:-0.620415 9:-0.620948 10:-0.378882 11:-0.608108 12:-0.49505 13:-0.395683 14:-0.321429 
-0.07208822920779018 1:0.12 2:0.525424 3:-0.603515 4:0.57513 5:-0.462687 6:-0.311072 7:-0.484117 8:-0.642743 9:-0.625935 10:-0.403727 11:0.972973 12:-0.247525 13:-0.0359712 14:-0.142857 
1 1:-0.267368 2:0.0508475 3:-0.133456 4:1 5:-0.00497512 6:0.191564 7:-0.242694 8:-0.282297 9:-0.276808 10:0.15528 11:-0.445946 12:-0.19802 13:0.410072 14:0.642857 
-0.499019508584222 1:-0.0610526 2:-0.0847458 3:-0.360311 4:0.834197 5:-0.0447761 6:-0.149385 7:-0.336722 8:-0.470494 9:-0.406484 10:-0.15528 11:-0.148649 12:-0.386139 13:0.338129 14:0.392857 
0.1010950449456482 1:-0.242105 2:-0.288136 3:-0.615778 4:0.61658 5:-1 6:-0.514938 7:-0.545108 8:-0.629984 9:-0.625935 10:-0.254658 11:-0.22973 12:-0.386139 13:0.208633 14:0.0714286 
-0.4759178268465519 1:-0.271579 2:-0.288136 3:-0.382792 4:0.906736 5:-0.263682 6:0.0826011 7:-0.50953 8:-0.454545 9:-0.486284 10:-0.130435 11:-0.22973 12:0.019802 13:0.395683 14:0.214286 
0.3917750391144861 1:0.178947 2:-0.288136 3:-0.470672 4:0.678756 5:-0.402985 6:0.00878735 7:-0.0952986 8:-0.425837 9:-0.177057 10:-0.130435 11:-0.391892 12:-0.138614 13:-0.0215827 14:-0.428571 
-0.2042872780735504 1:-0.267368 2:-0.288136 3:-0.724096 4:0.585492 5:-0.363184 6:-0.41652 7:-0.781449 8:-0.738437 9:-0.685786 10:-0.652174 11:-0.77027 12:-0.0990099 13:0.0359712 14:-0.428571 
0.1454839699804223 1:-0.237895 2:-0.0847458 3:-0.564684 4:0.740933 5:-0.562189 6:-0.349736 7:-0.473952 8:-0.655502 9:-0.511222 10:-0.291925 11:-0.445946 12:-0.732673 13:-0.208633 14:-0.357143 
0.2580462184442092 1:0.313684 2:-0.79661 3:-0.286736 4:0.637306 5:-0.263682 6:-0.0755712 7:-0.0952986 8:-0.317384 9:0.0673317 10:-0.130435 11:-0.175676 12:0.029703 13:0.395683 14:0.178571 
0.06153961704875775 1:-0.473684 2:-0.728814 3:-0.852851 4:0.626943 5:-0.522388 6:-0.669596 7:-0.817027 8:-0.84689 9:-0.855362 10:-0.776398 11:-0.635135 12:-0.782178 13:1 14:-0.607143 
0.09429614973347067 1:-0.604211 2:-0.694915 3:-0.732271 4:0.772021 5:-0.61194 6:-0.483304 7:-0.700127 8:-0.792663 9:-0.735661 10:-0.552795 11:-0.743243 12:-0.782178 13:-0.23741 14:-0.75 
-0.1953299885417364 1:-0.364211 2:-0.59322 3:-0.824239 4:0.699482 5:-0.512438 6:-0.652021 7:-0.644219 8:-0.85327 9:-0.740648 10:-0.677019 11:-0.824324 12:-0.653465 13:-0.251799 14:-0.75 
-0.4857079087159877 1:0.444211 2:-0.559322 3:-0.1028 4:0.658031 5:-0.0746269 6:0.251318 7:0.181703 8:-0.141946 9:0.356608 10:-0.0559006 11:-0.337838 12:0.118812 13:0.553957 14:0.0714286 
0.2964889516495552 1:-0.970526 2:-0.559322 3:-0.940732 4:0.492228 5:-0.711443 6:-0.595782 7:-0.857687 8:-0.866029 9:-0.860349 10:-0.776398 11:-0.608108 12:-1 13:-0.294964 14:-0.607143 
-0.06721060274795043 1:0.0652632 2:-0.525424 3:-0.115062 4:0.751295 5:0.0348259 6:0.265378 7:0.00127065 8:-0.062201 9:0.0972569 10:0.167702 11:-0.337838 12:0.049505 13:-1 14:0.535714 
0.03192522249791461 1:-0.288421 2:-0.423729 3:-0.0496628 4:0.865285 5:0.164179 6:0.0615114 7:-0.108005 8:-0.205742 9:0.112219 10:0.254658 11:-0.0945946 12:0.415842 13:0.654676 14:0.464286 
1 1:-1 2:-0.389831 3:-1 4:0.595855 5:-0.731343 6:-1 7:-1 8:-1 9:-1 10:-0.937888 11:-0.851351 12:-0.712871 13:-0.482014 14:-0.75 
0.008474793299440782 1:-0.490526 2:-0.389831 3:-0.666871 4:0.668394 5:-0.58209 6:-0.543058 7:-0.557814 8:-0.645933 9:-0.461347 10:-0.204969 11:-0.513514 12:-0.485149 13:-0.223022 14:-0.428571 
-0.1435471974018198 1:0.604211 2:-0.322034 3:0.0279992 4:0.927461 5:0.0646766 6:0.261863 7:0.125794 8:-0.125997 9:0.0623441 10:0.490683 11:-0.135135 12:0.217822 13:0.467626 14:0.464286 
0.2489632259338045 1:-0.00631579 2:-0.288136 3:-0.572859 4:0.57513 5:-0.373134 6:-0.142355 7:-0.484117 8:-0.706539 9:-0.436409 10:-0.254658 11:-0.324324 12:-0.108911 13:0.122302 14:0.0714286 
0.09583934009642986 1:0.381053 2:-0.152542 3:-0.374617 4:0.782383 5:-0.0945274 6:-0.177504 7:-0.189327 8:-0.467305 9:-0.326683 10:-0.204969 11:-0.432432 12:0.178218 13:0.52518 14:-0.0714286 
-0.05866022034404859 1:1 2:-0.0169492 3:-0.178418 4:0.430052 5:0.00497512 6:0.42355 7:0.339263 8:-0.113238 9:-0.236908 10:-0.515528 11:-0.391892 12:-0.019802 13:0.165468 14:-0.0714286 
0.09485243868001232 1:0.0947368 2:0.0847458 3:-0.0884938 4:0.772021 5:0.134328 6:0.427065 7:0.0419314 8:-0.346093 9:-0.15212 10:0.204969 11:0.0675676 12:0.346535 13:0.582734 14:0.357143 
0.09071139449959054 1:-0.781053 2:0.118644 3:-0.805845 4:0.564767 5:-0.59204 6:-0.528998 7:-0.659466 8:-0.779904 9:-0.640898 10:-0.726708 11:-0.540541 12:-0.544554 13:-0.165468 14:-0.571429 
-0.03670201611048261 1:-0.473684 2:0.118644 3:-0.9346 4:0.544041 5:-0.771144 6:-0.666081 7:-0.776366 8:-0.920255 9:-0.820449 10:-1 11:-0.918919 12:-0.950495 13:-0.856115 14:-1 
-0.1103834038326457 1:0.0610526 2:0.118644 3:-0.346004 4:0.854922 5:-0.283582 6:-0.086116 7:-0.306226 8:-0.311005 9:-0.162095 10:0.192547 11:-0.418919 12:-0.168317 13:0.294964 14:-0.0714286 
0.04211878014130609 1:-0.553684 2:0.186441 3:-0.760883 4:0.502591 5:-0.59204 6:-0.286467 7:-0.56798 8:-0.837321 9:-0.710723 10:-0.751553 11:-0.702703 12:-0.316832 13:-0.0935252 14:-0.607143 
-0.02944776847337103 1:0.124211 2:0.220339 3:-0.646434 4:0.564767 5:-0.60199 6:-0.45167 7:-0.35197 8:-0.515152 9:-0.521197 10:-0.639752 11:-0.743243 12:-0.70297 13:-0.266187 14:-0.357143 
0.282058245840799 1:0.258947 2:0.457627 3:-0.417535 4:0.502591 5:-0.0348259 6:-0.0474517 7:-0.209657 8:-0.505582 9:-0.401496 10:-0.36646 11:-0.337838 12:0.0990099 13:0.366906 14:0.178571 
-0.1158818878243663 1:-0.284211 2:0.457627 3:-0.926426 4:0.502591 5:-0.641791 6:-0.518453 7:-0.738247 8:-0.917065 9:-0.825436 10:-0.950311 11:-0.864865 12:-0.633663 13:-0.453237 14:-0.75 
-0.02772168153864126 1:0.372632 2:0.525424 3:-0.106887 4:0.792746 5:0.0149254 6:0.282953 7:0.11817 8:-0.208931 9:-0.0822943 10:0.614907 11:-0.148649 12:0.039604 13:0.266187 14:0.321429 
-0.128582035897807 1:0.0947368 2:0.694915 3:-0.40936 4:0.699482 5:-0.223881 6:0.0193322 7:-0.189327 8:-0.591707 9:-0.561097 10:0.068323 11:-0.513514 12:-0.435644 13:0.208633 14:0.428571 
-0.1743466342978499 1:0.343158 2:0.762712 3:-0.27243 4:0.678756 5:-0.0348259 6:0.163445 7:-0.00635324 8:-0.295056 9:-0.396509 10:0.142857 11:-0.256757 12:-0.118812 13:0.294964 14:0.821429 
